digraph Tree {
node [shape=box] ;
0 [label="X[5] <= 655.5\ngini = 0.5\nsamples = 5378\nvalue = [2689, 2689]"] ;
1 [label="X[0] <= 1.5\ngini = 0.489\nsamples = 2913\nvalue = [1673, 1240]"] ;
0 -> 1 [labeldistance=2.5, labelangle=45, headlabel="True"] ;
2 [label="X[10] <= 0.5\ngini = 0.4714\nsamples = 2321\nvalue = [1438, 883]"] ;
1 -> 2 ;
3 [label="X[2] <= 294.5\ngini = 0.479\nsamples = 1834\nvalue = [1105, 729]"] ;
2 -> 3 ;
4 [label="X[2] <= 60.5\ngini = 0.4956\nsamples = 468\nvalue = [256, 212]"] ;
3 -> 4 ;
5 [label="gini = 0.4486\nsamples = 106\nvalue = [70, 36]"] ;
4 -> 5 ;
6 [label="gini = 0.4996\nsamples = 362\nvalue = [186, 176]"] ;
4 -> 6 ;
7 [label="X[5] <= 339.5\ngini = 0.4705\nsamples = 1366\nvalue = [849, 517]"] ;
3 -> 7 ;
8 [label="gini = 0.4554\nsamples = 984\nvalue = [639, 345]"] ;
7 -> 8 ;
9 [label="gini = 0.4951\nsamples = 382\nvalue = [210, 172]"] ;
7 -> 9 ;
10 [label="X[6] <= 88.7419\ngini = 0.4325\nsamples = 487\nvalue = [333, 154]"] ;
2 -> 10 ;
11 [label="X[2] <= 29.5\ngini = 0.4253\nsamples = 476\nvalue = [330, 146]"] ;
10 -> 11 ;
12 [label="gini = 0.32\nsamples = 5\nvalue = [1, 4]"] ;
11 -> 12 ;
13 [label="gini = 0.4212\nsamples = 471\nvalue = [329, 142]"] ;
11 -> 13 ;
14 [label="X[4] <= 0.8333\ngini = 0.3967\nsamples = 11\nvalue = [3, 8]"] ;
10 -> 14 ;
15 [label="gini = 0.4444\nsamples = 3\nvalue = [2, 1]"] ;
14 -> 15 ;
16 [label="gini = 0.2188\nsamples = 8\nvalue = [1, 7]"] ;
14 -> 16 ;
17 [label="X[0] <= 2.5\ngini = 0.4788\nsamples = 592\nvalue = [235, 357]"] ;
1 -> 17 ;
18 [label="X[2] <= 1690.5\ngini = 0.4333\nsamples = 523\nvalue = [166, 357]"] ;
17 -> 18 ;
19 [label="X[5] <= 417.0\ngini = 0.4178\nsamples = 471\nvalue = [140, 331]"] ;
18 -> 19 ;
20 [label="gini = 0.4365\nsamples = 407\nvalue = [131, 276]"] ;
19 -> 20 ;
21 [label="gini = 0.2417\nsamples = 64\nvalue = [9, 55]"] ;
19 -> 21 ;
22 [label="X[2] <= 1804.0\ngini = 0.5\nsamples = 52\nvalue = [26, 26]"] ;
18 -> 22 ;
23 [label="gini = 0.3457\nsamples = 9\nvalue = [7, 2]"] ;
22 -> 23 ;
24 [label="gini = 0.4932\nsamples = 43\nvalue = [19, 24]"] ;
22 -> 24 ;
25 [label="gini = 0.0\nsamples = 69\nvalue = [69, 0]"] ;
17 -> 25 ;
26 [label="X[0] <= 2.5\ngini = 0.4846\nsamples = 2465\nvalue = [1016, 1449]"] ;
0 -> 26 [labeldistance=2.5, labelangle=-45, headlabel="False"] ;
27 [label="X[0] <= 1.5\ngini = 0.4786\nsamples = 2401\nvalue = [952, 1449]"] ;
26 -> 27 ;
28 [label="X[5] <= 2199.5\ngini = 0.4906\nsamples = 1901\nvalue = [820, 1081]"] ;
27 -> 28 ;
29 [label="X[6] <= 435.9313\ngini = 0.4992\nsamples = 1028\nvalue = [493, 535]"] ;
28 -> 29 ;
30 [label="gini = 0.4998\nsamples = 977\nvalue = [480, 497]"] ;
29 -> 30 ;
31 [label="gini = 0.3799\nsamples = 51\nvalue = [13, 38]"] ;
29 -> 31 ;
32 [label="X[10] <= 0.5\ngini = 0.4685\nsamples = 873\nvalue = [327, 546]"] ;
28 -> 32 ;
33 [label="gini = 0.4544\nsamples = 682\nvalue = [238, 444]"] ;
32 -> 33 ;
34 [label="gini = 0.4977\nsamples = 191\nvalue = [89, 102]"] ;
32 -> 34 ;
35 [label="X[5] <= 2757.5\ngini = 0.3886\nsamples = 500\nvalue = [132, 368]"] ;
27 -> 35 ;
36 [label="X[5] <= 1240.0\ngini = 0.4394\nsamples = 316\nvalue = [103, 213]"] ;
35 -> 36 ;
37 [label="gini = 0.3468\nsamples = 112\nvalue = [25, 87]"] ;
36 -> 37 ;
38 [label="gini = 0.4723\nsamples = 204\nvalue = [78, 126]"] ;
36 -> 38 ;
39 [label="X[5] <= 6724.0\ngini = 0.2655\nsamples = 184\nvalue = [29, 155]"] ;
35 -> 39 ;
40 [label="gini = 0.2024\nsamples = 140\nvalue = [16, 124]"] ;
39 -> 40 ;
41 [label="gini = 0.4163\nsamples = 44\nvalue = [13, 31]"] ;
39 -> 41 ;
42 [label="gini = 0.0\nsamples = 64\nvalue = [64, 0]"] ;
26 -> 42 ;
}